SVM-light Version V6.02
0 # kernel type
3 # kernel parameter -d 
1 # kernel parameter -g 
1 # kernel parameter -s 
1 # kernel parameter -r 
empty# kernel parameter -u 
8 # highest feature index 
615 # number of training documents 
391 # number of support vectors plus 1 
-4.1266375 # threshold b, each following line is a SV (starting with alpha*y)
-2.7983487781777517238454913717227e-05 1:8 2:125 3:96 4:0 5:0 6:0 7:0.23199999 8:54 #
2.7983487781777517238454913717227e-05 1:3 2:113 3:50 4:10 5:85 6:29.5 7:0.62599999 8:25 #
-2.7983487781777517238454913717227e-05 1:6 2:0 3:68 4:41 5:0 6:39 7:0.727 8:41 #
2.7983487781777517238454913717227e-05 1:8 2:194 3:80 4:0 5:0 6:26.1 7:0.551 8:67 #
-2.7983487781777517238454913717227e-05 1:3 2:176 3:86 4:27 5:156 6:33.299999 7:1.154 8:52 #
2.7983487781777517238454913717227e-05 1:3 2:125 3:58 4:0 5:0 6:31.6 7:0.15099999 8:24 #
-2.7983487781777517238454913717227e-05 1:5 2:0 3:80 4:32 5:0 6:41 7:0.34599999 8:37 #
2.7983487781777517238454913717227e-05 1:4 2:197 3:70 4:39 5:744 6:36.700001 7:2.329 8:31 #
2.7983487781777517238454913717227e-05 1:6 2:109 3:60 4:27 5:0 6:25 7:0.206 8:27 #
-2.7983487781777517238454913717227e-05 1:11 2:135 3:0 4:0 5:0 6:52.299999 7:0.57800001 8:40 #
2.7983487781777517238454913717227e-05 1:0 2:165 3:90 4:33 5:680 6:52.299999 7:0.42699999 8:23 #
-2.7983487781777517238454913717227e-05 1:1 2:122 3:90 4:51 5:220 6:49.700001 7:0.32499999 8:31 #
-2.7983487781777517238454913717227e-05 1:0 2:131 3:0 4:0 5:0 6:43.200001 7:0.27000001 8:26 #
2.7983487781777517238454913717227e-05 1:13 2:106 3:70 4:0 5:0 6:34.200001 7:0.25099999 8:52 #
-2.7983487781777517238454913717227e-05 1:1 2:168 3:88 4:29 5:0 6:35 7:0.90499997 8:52 #
2.7983487781777517238454913717227e-05 1:2 2:119 3:0 4:0 5:0 6:19.6 7:0.83200002 8:72 #
-2.7983487781777517238454913717227e-05 1:1 2:172 3:68 4:49 5:579 6:42.400002 7:0.70200002 8:28 #
-2.7983487781777517238454913717227e-05 1:7 2:100 3:0 4:0 5:0 6:30 7:0.484 8:32 #
-2.7983487781777517238454913717227e-05 1:8 2:124 3:76 4:24 5:600 6:28.700001 7:0.68699998 8:52 #
-2.7983487781777517238454913717227e-05 1:0 2:119 3:0 4:0 5:0 6:32.400002 7:0.141 8:24 #
-2.7983487781777517238454913717227e-05 1:2 2:118 3:80 4:0 5:0 6:42.900002 7:0.69300002 8:21 #
2.7983487781777517238454913717227e-05 1:5 2:155 3:84 4:44 5:545 6:38.700001 7:0.61900002 8:34 #
2.7983487781777517238454913717227e-05 1:5 2:116 3:74 4:0 5:0 6:25.6 7:0.20100001 8:30 #
-2.7983487781777517238454913717227e-05 1:1 2:95 3:82 4:25 5:180 6:35 7:0.233 8:43 #
2.7983487781777517238454913717227e-05 1:10 2:179 3:70 4:0 5:0 6:35.099998 7:0.2 8:37 #
2.7983487781777517238454913717227e-05 1:4 2:114 3:65 4:0 5:0 6:21.9 7:0.43200001 8:37 #
2.7983487781777517238454913717227e-05 1:1 2:153 3:82 4:42 5:485 6:40.599998 7:0.68699998 8:23 #
2.7983487781777517238454913717227e-05 1:6 2:129 3:90 4:7 5:326 6:19.6 7:0.58200002 8:60 #
2.7983487781777517238454913717227e-05 1:0 2:117 3:80 4:31 5:53 6:45.200001 7:0.089000002 8:24 #
2.7983487781777517238454913717227e-05 1:2 2:112 3:75 4:32 5:0 6:35.700001 7:0.148 8:21 #
2.7983487781777517238454913717227e-05 1:2 2:129 3:0 4:0 5:0 6:38.5 7:0.30399999 8:41 #
2.7983487781777517238454913717227e-05 1:1 2:139 3:62 4:41 5:480 6:40.700001 7:0.53600001 8:21 #
-2.7983487781777517238454913717227e-05 1:12 2:92 3:62 4:7 5:258 6:27.6 7:0.926 8:44 #
2.7983487781777517238454913717227e-05 1:4 2:189 3:110 4:31 5:0 6:28.5 7:0.68000001 8:37 #
2.7983487781777517238454913717227e-05 1:1 2:131 3:64 4:14 5:415 6:23.700001 7:0.389 8:21 #
-2.7983487781777517238454913717227e-05 1:7 2:142 3:90 4:24 5:480 6:30.4 7:0.12800001 8:43 #
2.7983487781777517238454913717227e-05 1:0 2:117 3:0 4:0 5:0 6:33.799999 7:0.93199998 8:44 #
2.7983487781777517238454913717227e-05 1:2 2:157 3:74 4:35 5:440 6:39.400002 7:0.134 8:30 #
-2.7983487781777517238454913717227e-05 1:2 2:93 3:64 4:32 5:160 6:38 7:0.67400002 8:23 #
2.7983487781777517238454913717227e-05 1:7 2:179 3:95 4:31 5:0 6:34.200001 7:0.164 8:60 #
2.7983487781777517238454913717227e-05 1:8 2:126 3:74 4:38 5:75 6:25.9 7:0.162 8:39 #
-2.7983487781777517238454913717227e-05 1:2 2:100 3:66 4:20 5:90 6:32.900002 7:0.86699998 8:28 #
-2.7983487781777517238454913717227e-05 1:8 2:155 3:62 4:26 5:495 6:34 7:0.54299998 8:46 #
2.7983487781777517238454913717227e-05 1:6 2:183 3:94 4:0 5:0 6:40.799999 7:1.461 8:45 #
2.7983487781777517238454913717227e-05 1:10 2:115 3:0 4:0 5:0 6:35.299999 7:0.134 8:29 #
2.7983487781777517238454913717227e-05 1:3 2:158 3:64 4:13 5:387 6:31.200001 7:0.29499999 8:24 #
2.7983487781777517238454913717227e-05 1:7 2:150 3:66 4:42 5:342 6:34.700001 7:0.71799999 8:42 #
2.7983487781777517238454913717227e-05 1:1 2:107 3:50 4:19 5:0 6:28.299999 7:0.18099999 8:29 #
2.7983487781777517238454913717227e-05 1:0 2:147 3:85 4:54 5:0 6:42.799999 7:0.375 8:24 #
-2.7983487781777517238454913717227e-05 1:7 2:97 3:76 4:32 5:91 6:40.900002 7:0.87099999 8:32 #
-2.7983487781777517238454913717227e-05 1:14 2:100 3:78 4:25 5:184 6:36.599998 7:0.412 8:46 #
2.7983487781777517238454913717227e-05 1:0 2:173 3:78 4:32 5:265 6:46.5 7:1.159 8:58 #
-2.7983487781777517238454913717227e-05 1:1 2:115 3:70 4:30 5:96 6:34.599998 7:0.52899998 8:32 #
2.7983487781777517238454913717227e-05 1:7 2:114 3:76 4:17 5:110 6:23.799999 7:0.46599999 8:31 #
-2.7983487781777517238454913717227e-05 1:3 2:173 3:84 4:33 5:474 6:35.700001 7:0.25799999 8:22 #
-2.7983487781777517238454913717227e-05 1:5 2:136 3:84 4:41 5:88 6:35 7:0.28600001 8:35 #
2.7983487781777517238454913717227e-05 1:4 2:154 3:62 4:31 5:284 6:32.799999 7:0.237 8:23 #
-2.7983487781777517238454913717227e-05 1:1 2:88 3:30 4:42 5:99 6:55 7:0.49599999 8:26 #
2.7983487781777517238454913717227e-05 1:1 2:143 3:84 4:23 5:310 6:42.400002 7:1.076 8:22 #
-2.7983487781777517238454913717227e-05 1:3 2:182 3:74 4:0 5:0 6:30.5 7:0.345 8:29 #
-2.7983487781777517238454913717227e-05 1:2 2:155 3:74 4:17 5:96 6:26.6 7:0.433 8:27 #
2.7983487781777517238454913717227e-05 1:0 2:165 3:76 4:43 5:255 6:47.900002 7:0.259 8:26 #
-2.7983487781777517238454913717227e-05 1:3 2:173 3:82 4:48 5:465 6:38.400002 7:2.1370001 8:25 #
-2.7983487781777517238454913717227e-05 1:4 2:109 3:64 4:44 5:99 6:34.799999 7:0.90499997 8:26 #
-2.7983487781777517238454913717227e-05 1:4 2:125 3:70 4:18 5:122 6:28.9 7:1.1440001 8:45 #
2.7983487781777517238454913717227e-05 1:0 2:152 3:82 4:39 5:272 6:41.5 7:0.27000001 8:27 #
2.7983487781777517238454913717227e-05 1:13 2:106 3:72 4:54 5:0 6:36.599998 7:0.178 8:45 #
-2.7983487781777517238454913717227e-05 1:0 2:180 3:90 4:26 5:90 6:36.5 7:0.31400001 8:35 #
2.7983487781777517238454913717227e-05 1:0 2:114 3:80 4:34 5:285 6:44.200001 7:0.167 8:27 #
-2.7983487781777517238454913717227e-05 1:6 2:134 3:80 4:37 5:370 6:46.200001 7:0.23800001 8:46 #
2.7983487781777517238454913717227e-05 1:4 2:151 3:90 4:38 5:0 6:29.700001 7:0.294 8:36 #
-2.7983487781777517238454913717227e-05 1:8 2:109 3:76 4:39 5:114 6:27.9 7:0.63999999 8:31 #
2.7983487781777517238454913717227e-05 1:0 2:134 3:58 4:20 5:291 6:26.4 7:0.352 8:21 #
2.7983487781777517238454913717227e-05 1:1 2:120 3:80 4:48 5:200 6:38.900002 7:1.1619999 8:41 #
-2.7983487781777517238454913717227e-05 1:0 2:128 3:68 4:19 5:180 6:30.5 7:1.391 8:25 #
2.7983487781777517238454913717227e-05 1:9 2:134 3:74 4:33 5:60 6:25.9 7:0.46000001 8:81 #
-2.7983487781777517238454913717227e-05 1:3 2:163 3:70 4:18 5:105 6:31.6 7:0.26800001 8:28 #
2.7983487781777517238454913717227e-05 1:2 2:127 3:58 4:24 5:275 6:27.700001 7:1.6 8:25 #
2.7983487781777517238454913717227e-05 1:1 2:144 3:82 4:40 5:0 6:41.299999 7:0.60699999 8:28 #
-2.7983487781777517238454913717227e-05 1:2 2:146 3:70 4:38 5:360 6:28 7:0.33700001 8:29 #
-2.7983487781777517238454913717227e-05 1:1 2:128 3:88 4:39 5:110 6:36.5 7:1.057 8:37 #
2.7983487781777517238454913717227e-05 1:4 2:129 3:86 4:20 5:270 6:35.099998 7:0.23100001 8:23 #
-2.7983487781777517238454913717227e-05 1:2 2:102 3:86 4:36 5:120 6:45.5 7:0.127 8:23 #
2.7983487781777517238454913717227e-05 1:6 2:144 3:72 4:27 5:228 6:33.900002 7:0.255 8:40 #
-2.7983487781777517238454913717227e-05 1:7 2:160 3:54 4:32 5:175 6:30.5 7:0.588 8:39 #
-2.7983487781777517238454913717227e-05 1:10 2:125 3:70 4:26 5:115 6:31.1 7:0.205 8:41 #
2.7983487781777517238454913717227e-05 1:3 2:123 3:100 4:35 5:240 6:57.299999 7:0.88 8:22 #
-2.7983487781777517238454913717227e-05 1:15 2:136 3:70 4:32 5:110 6:37.099998 7:0.153 8:43 #
-2.7983487781777517238454913717227e-05 1:1 2:173 3:74 4:0 5:0 6:36.799999 7:0.088 8:38 #
2.7983487781777517238454913717227e-05 1:3 2:191 3:68 4:15 5:130 6:30.9 7:0.29899999 8:34 #
-2.7983487781777517238454913717227e-05 1:3 2:129 3:64 4:29 5:115 6:26.4 7:0.219 8:28 #
2.7983487781777517238454913717227e-05 1:3 2:126 3:88 4:41 5:235 6:39.299999 7:0.704 8:27 #
2.7983487781777517238454913717227e-05 1:7 2:119 3:0 4:0 5:0 6:25.200001 7:0.20900001 8:37 #
-2.7983487781777517238454913717227e-05 1:1 2:117 3:88 4:24 5:145 6:34.5 7:0.403 8:40 #
2.7983487781777517238454913717227e-05 1:7 2:124 3:70 4:33 5:215 6:25.5 7:0.161 8:37 #
-2.7983487781777517238454913717227e-05 1:4 2:148 3:60 4:27 5:318 6:30.9 7:0.15000001 8:29 #
-2.7983487781777517238454913717227e-05 1:2 2:124 3:68 4:28 5:205 6:32.900002 7:0.875 8:30 #
-2.7983487781777517238454913717227e-05 1:6 2:134 3:70 4:23 5:130 6:35.400002 7:0.542 8:29 #
2.7983487781777517238454913717227e-05 1:6 2:165 3:68 4:26 5:168 6:33.599998 7:0.63099998 8:49 #
-2.7983487781777517238454913717227e-05 1:5 2:166 3:72 4:19 5:175 6:25.799999 7:0.58700001 8:51 #
-2.7983487781777517238454913717227e-05 1:5 2:168 3:64 4:0 5:0 6:32.900002 7:0.13500001 8:41 #
-2.7983487781777517238454913717227e-05 1:0 2:162 3:76 4:56 5:100 6:53.200001 7:0.759 8:25 #
-2.7983487781777517238454913717227e-05 1:0 2:121 3:66 4:30 5:165 6:34.299999 7:0.20299999 8:33 #
2.7983487781777517238454913717227e-05 1:6 2:154 3:78 4:41 5:140 6:46.099998 7:0.57099998 8:27 #
-2.7983487781777517238454913717227e-05 1:3 2:169 3:74 4:19 5:125 6:29.9 7:0.26800001 8:31 #
2.7983487781777517238454913717227e-05 1:6 2:166 3:74 4:0 5:0 6:26.6 7:0.30399999 8:66 #
-2.7983487781777517238454913717227e-05 1:5 2:109 3:62 4:41 5:129 6:35.799999 7:0.514 8:25 #
2.7983487781777517238454913717227e-05 1:0 2:127 3:80 4:37 5:210 6:36.299999 7:0.80400002 8:23 #
-2.7983487781777517238454913717227e-05 1:0 2:129 3:110 4:46 5:130 6:67.099998 7:0.31900001 8:26 #
2.7983487781777517238454913717227e-05 1:2 2:146 3:76 4:35 5:194 6:38.200001 7:0.329 8:29 #
2.7983487781777517238454913717227e-05 1:12 2:140 3:85 4:33 5:0 6:37.400002 7:0.244 8:41 #
2.7983487781777517238454913717227e-05 1:0 2:126 3:84 4:29 5:215 6:30.700001 7:0.51999998 8:24 #
-2.7983487781777517238454913717227e-05 1:1 2:167 3:74 4:17 5:144 6:23.4 7:0.447 8:33 #
-2.7983487781777517238454913717227e-05 1:8 2:100 3:74 4:40 5:215 6:39.400002 7:0.66100001 8:43 #
2.7983487781777517238454913717227e-05 1:9 2:154 3:78 4:30 5:100 6:30.9 7:0.164 8:45 #
-2.7983487781777517238454913717227e-05 1:0 2:179 3:90 4:27 5:0 6:44.099998 7:0.68599999 8:23 #
-2.7983487781777517238454913717227e-05 1:1 2:122 3:64 4:32 5:156 6:35.099998 7:0.69199997 8:30 #
2.7983487781777517238454913717227e-05 1:1 2:114 3:66 4:36 5:200 6:38.099998 7:0.289 8:21 #
-2.7983487781777517238454913717227e-05 1:7 2:150 3:78 4:29 5:126 6:35.200001 7:0.69199997 8:54 #
2.7983487781777517238454913717227e-05 1:2 2:129 3:74 4:26 5:205 6:33.200001 7:0.59100002 8:25 #
-2.7983487781777517238454913717227e-05 1:2 2:144 3:58 4:33 5:135 6:31.6 7:0.42199999 8:25 #
2.7983487781777517238454913717227e-05 1:2 2:122 3:76 4:27 5:200 6:35.900002 7:0.48300001 8:26 #
-2.7983487781777517238454913717227e-05 1:9 2:112 3:82 4:32 5:175 6:34.200001 7:0.25999999 8:36 #
2.7983487781777517238454913717227e-05 1:6 2:151 3:62 4:31 5:120 6:35.5 7:0.69199997 8:28 #
2.7983487781777517238454913717227e-05 1:10 2:101 3:76 4:48 5:180 6:32.900002 7:0.171 8:63 #
-2.7983487781777517238454913717227e-05 1:7 2:129 3:68 4:49 5:125 6:38.5 7:0.43900001 8:43 #
-2.7983487781777517238454913717227e-05 1:2 2:105 3:80 4:45 5:191 6:33.700001 7:0.71100003 8:29 #
2.7983487781777517238454913717227e-05 1:1 2:157 3:72 4:21 5:168 6:25.6 7:0.123 8:24 #
-2.7983487781777517238454913717227e-05 1:10 2:161 3:68 4:23 5:132 6:25.5 7:0.32600001 8:47 #
2.7983487781777517238454913717227e-05 1:1 2:119 3:88 4:41 5:170 6:45.299999 7:0.50700003 8:26 #
-2.7983487781777517238454913717227e-05 1:3 2:128 3:72 4:25 5:190 6:32.400002 7:0.54900002 8:27 #
2.7983487781777517238454913717227e-05 1:4 2:154 3:72 4:29 5:126 6:31.299999 7:0.338 8:37 #
-2.7983487781777517238454913717227e-05 1:11 2:138 3:74 4:26 5:144 6:36.099998 7:0.55699998 8:50 #
-2.7983487781777517238454913717227e-05 1:5 2:139 3:80 4:35 5:160 6:31.6 7:0.361 8:25 #
2.7983487781777517238454913717227e-05 1:2 2:122 3:52 4:43 5:158 6:36.200001 7:0.81599998 8:28 #
-2.7983487781777517238454913717227e-05 1:11 2:120 3:80 4:37 5:150 6:42.299999 7:0.78500003 8:48 #
2.7983487781777517238454913717227e-05 1:1 2:140 3:74 4:26 5:180 6:24.1 7:0.82800001 8:23 #
-2.7983487781777517238454913717227e-05 1:0 2:138 3:60 4:35 5:167 6:34.599998 7:0.53399998 8:21 #
2.7983487781777517238454913717227e-05 1:8 2:126 3:88 4:36 5:108 6:38.5 7:0.34900001 8:49 #
2.7983487781777517238454913717227e-05 1:1 2:108 3:60 4:46 5:178 6:35.5 7:0.41499999 8:24 #
-2.7983487781777517238454913717227e-05 1:1 2:125 3:50 4:40 5:167 6:33.299999 7:0.96200001 8:28 #
2.7983487781777517238454913717227e-05 1:4 2:144 3:58 4:28 5:140 6:29.5 7:0.287 8:37 #
-2.7983487781777517238454913717227e-05 1:2 2:174 3:88 4:37 5:120 6:44.5 7:0.64600003 8:24 #
2.0039533841026413440999931481201e-05 1:5 2:104 3:74 4:0 5:0 6:28.799999 7:0.153 8:48 #
-2.7983487781777517238454913717227e-05 1:4 2:111 3:72 4:47 5:207 6:37.099998 7:1.39 8:56 #
-2.7983487781777517238454913717227e-05 1:17 2:163 3:72 4:41 5:114 6:40.900002 7:0.81699997 8:47 #
2.7983487781777517238454913717227e-05 1:0 2:117 3:66 4:31 5:188 6:30.799999 7:0.493 8:22 #
-2.7983487781777517238454913717227e-05 1:0 2:137 3:40 4:35 5:168 6:43.099998 7:2.2880001 8:33 #
2.7983487781777517238454913717227e-05 1:5 2:139 3:64 4:35 5:140 6:28.6 7:0.41100001 8:26 #
-2.7983487781777517238454913717227e-05 1:9 2:145 3:80 4:46 5:130 6:37.900002 7:0.63700002 8:40 #
2.7983487781777517238454913717227e-05 1:2 2:123 3:48 4:32 5:165 6:42.099998 7:0.51999998 8:26 #
-2.7983487781777517238454913717227e-05 1:2 2:128 3:78 4:37 5:182 6:43.299999 7:1.224 8:31 #
2.7983487781777517238454913717227e-05 1:7 2:136 3:74 4:26 5:135 6:26 7:0.64700001 8:51 #
-2.7983487781777517238454913717227e-05 1:11 2:143 3:94 4:33 5:146 6:36.599998 7:0.25400001 8:51 #
2.7983487781777517238454913717227e-05 1:1 2:116 3:78 4:29 5:180 6:36.099998 7:0.49599999 8:25 #
-2.7983487781777517238454913717227e-05 1:1 2:128 3:48 4:45 5:194 6:40.5 7:0.61299998 8:24 #
2.7983487781777517238454913717227e-05 1:7 2:133 3:88 4:15 5:155 6:32.400002 7:0.26199999 8:37 #
-2.7983487781777517238454913717227e-05 1:3 2:171 3:72 4:33 5:135 6:33.299999 7:0.199 8:24 #
-2.7983487781777517238454913717227e-05 1:11 2:155 3:76 4:28 5:150 6:33.299999 7:1.353 8:51 #
2.7983487781777517238454913717227e-05 1:4 2:131 3:68 4:21 5:166 6:33.099998 7:0.16 8:28 #
2.7983487781777517238454913717227e-05 1:2 2:112 3:86 4:42 5:160 6:38.400002 7:0.24600001 8:28 #
-2.7983487781777517238454913717227e-05 1:1 2:119 3:86 4:39 5:220 6:45.599998 7:0.80800003 8:29 #
2.7983487781777517238454913717227e-05 1:2 2:141 3:58 4:34 5:128 6:25.4 7:0.699 8:24 #
2.7983487781777517238454913717227e-05 1:1 2:128 3:82 4:17 5:183 6:27.5 7:0.115 8:22 #
-2.7983487781777517238454913717227e-05 1:4 2:173 3:70 4:14 5:168 6:29.700001 7:0.361 8:33 #
2.7983487781777517238454913717227e-05 1:0 2:100 3:88 4:60 5:110 6:46.799999 7:0.96200001 8:31 #
-2.7983487781777517238454913717227e-05 1:9 2:145 3:88 4:34 5:165 6:30.299999 7:0.77100003 8:53 #
2.7983487781777517238454913717227e-05 1:13 2:145 3:82 4:19 5:110 6:22.200001 7:0.245 8:57 #
-2.7983487781777517238454913717227e-05 1:9 2:156 3:86 4:28 5:155 6:34.299999 7:1.189 8:42 #
-2.7983487781777517238454913717227e-05 1:14 2:175 3:62 4:30 5:0 6:33.599998 7:0.212 8:38 #
-2.7983487781777517238454913717227e-05 1:10 2:115 3:0 4:0 5:0 6:0 7:0.26100001 8:30 #
2.7983487781777517238454913717227e-05 1:10 2:162 3:84 4:0 5:0 6:27.700001 7:0.182 8:54 #
2.7983487781777517238454913717227e-05 1:4 2:146 3:85 4:27 5:100 6:28.9 7:0.189 8:27 #
-2.7983487781777517238454913717227e-05 1:4 2:95 3:64 4:0 5:0 6:32 7:0.161 8:31 #
-2.7983487781777517238454913717227e-05 1:3 2:78 3:50 4:32 5:88 6:31 7:0.248 8:26 #
2.7983487781777517238454913717227e-05 1:4 2:132 3:86 4:31 5:0 6:28 7:0.419 8:63 #
-2.7983487781777517238454913717227e-05 1:6 2:102 3:82 4:0 5:0 6:30.799999 7:0.18000001 8:36 #
-2.7983487781777517238454913717227e-05 1:8 2:179 3:72 4:42 5:130 6:32.700001 7:0.71899998 8:36 #
2.7983487781777517238454913717227e-05 1:0 2:137 3:70 4:38 5:0 6:33.200001 7:0.17 8:22 #
-2.7983487781777517238454913717227e-05 1:7 2:107 3:74 4:0 5:0 6:29.6 7:0.25400001 8:31 #
-2.7983487781777517238454913717227e-05 1:3 2:107 3:62 4:13 5:48 6:22.9 7:0.67799997 8:23 #
-2.7983487781777517238454913717227e-05 1:0 2:105 3:84 4:0 5:0 6:27.9 7:0.741 8:62 #
2.7983487781777517238454913717227e-05 1:3 2:148 3:66 4:25 5:0 6:32.5 7:0.25600001 8:22 #
2.7983487781777517238454913717227e-05 1:5 2:103 3:108 4:37 5:0 6:39.200001 7:0.30500001 8:65 #
-2.7983487781777517238454913717227e-05 1:0 2:113 3:76 4:0 5:0 6:33.299999 7:0.278 8:23 #
2.7983487781777517238454913717227e-05 1:3 2:115 3:66 4:39 5:140 6:38.099998 7:0.15000001 8:28 #
2.7983487781777517238454913717227e-05 1:5 2:158 3:70 4:0 5:0 6:29.799999 7:0.207 8:63 #
-2.7983487781777517238454913717227e-05 1:5 2:85 3:74 4:22 5:0 6:29 7:1.224 8:32 #
2.7983487781777517238454913717227e-05 1:1 2:130 3:60 4:23 5:170 6:28.6 7:0.69199997 8:21 #
2.7983487781777517238454913717227e-05 1:4 2:112 3:78 4:40 5:0 6:39.400002 7:0.236 8:38 #
2.7983487781777517238454913717227e-05 1:3 2:113 3:44 4:13 5:0 6:22.4 7:0.14 8:22 #
2.7983487781777517238454913717227e-05 1:3 2:142 3:80 4:15 5:0 6:32.400002 7:0.2 8:63 #
-2.7983487781777517238454913717227e-05 1:2 2:108 3:80 4:0 5:0 6:27 7:0.259 8:52 #
2.7983487781777517238454913717227e-05 1:1 2:103 3:30 4:38 5:83 6:43.299999 7:0.183 8:33 #
2.7983487781777517238454913717227e-05 1:4 2:123 3:80 4:15 5:176 6:32 7:0.44299999 8:34 #
-2.7983487781777517238454913717227e-05 1:8 2:120 3:86 4:0 5:0 6:28.4 7:0.259 8:22 #
2.7983487781777517238454913717227e-05 1:10 2:129 3:76 4:28 5:122 6:35.900002 7:0.28 8:39 #
2.7983487781777517238454913717227e-05 1:5 2:143 3:78 4:0 5:0 6:45 7:0.19 8:47 #
2.7983487781777517238454913717227e-05 1:1 2:126 3:56 4:29 5:152 6:28.700001 7:0.801 8:21 #
-2.7983487781777517238454913717227e-05 1:3 2:158 3:70 4:30 5:328 6:35.5 7:0.34400001 8:35 #
-2.7983487781777517238454913717227e-05 1:0 2:131 3:88 4:0 5:0 6:31.6 7:0.74299997 8:32 #
-2.7983487781777517238454913717227e-05 1:4 2:115 3:72 4:0 5:0 6:28.9 7:0.37599999 8:46 #
-6.4746421087659986656065447263586e-06 1:1 2:189 3:60 4:23 5:846 6:30.1 7:0.398 8:59 #
-2.7983487781777517238454913717227e-05 1:8 2:108 3:70 4:0 5:0 6:30.5 7:0.95499998 8:33 #
-2.7983487781777517238454913717227e-05 1:7 2:178 3:84 4:0 5:0 6:39.900002 7:0.331 8:41 #
-2.7983487781777517238454913717227e-05 1:12 2:140 3:82 4:43 5:325 6:39.200001 7:0.528 8:58 #
-2.7983487781777517238454913717227e-05 1:7 2:114 3:64 4:0 5:0 6:27.4 7:0.73199999 8:34 #
2.7983487781777517238454913717227e-05 1:4 2:127 3:88 4:11 5:155 6:34.5 7:0.59799999 8:28 #
-2.7983487781777517238454913717227e-05 1:7 2:168 3:88 4:42 5:321 6:38.200001 7:0.787 8:40 #
2.7983487781777517238454913717227e-05 1:0 2:161 3:50 4:0 5:0 6:21.9 7:0.25400001 8:65 #
-2.7983487781777517238454913717227e-05 1:3 2:139 3:54 4:0 5:0 6:25.6 7:0.40200001 8:22 #
-2.7983487781777517238454913717227e-05 1:0 2:145 3:0 4:0 5:0 6:44.200001 7:0.63 8:31 #
-2.7983487781777517238454913717227e-05 1:7 2:181 3:84 4:21 5:192 6:35.900002 7:0.58600003 8:51 #
-2.7983487781777517238454913717227e-05 1:0 2:95 3:85 4:25 5:36 6:37.400002 7:0.24699999 8:24 #
2.7983487781777517238454913717227e-05 1:7 2:159 3:64 4:0 5:0 6:27.4 7:0.294 8:40 #
-2.7983487781777517238454913717227e-05 1:12 2:84 3:72 4:31 5:0 6:29.700001 7:0.29699999 8:46 #
2.7983487781777517238454913717227e-05 1:2 2:125 3:60 4:20 5:140 6:33.799999 7:0.088 8:31 #
2.7983487781777517238454913717227e-05 1:11 2:127 3:106 4:0 5:0 6:39 7:0.19 8:51 #
2.7983487781777517238454913717227e-05 1:0 2:105 3:64 4:41 5:142 6:41.5 7:0.17299999 8:22 #
-2.7983487781777517238454913717227e-05 1:1 2:181 3:64 4:30 5:180 6:34.099998 7:0.32800001 8:38 #
-2.7983487781777517238454913717227e-05 1:7 2:106 3:60 4:24 5:0 6:26.5 7:0.296 8:29 #
-2.7983487781777517238454913717227e-05 1:5 2:144 3:82 4:26 5:285 6:32 7:0.45199999 8:58 #
-2.7983487781777517238454913717227e-05 1:0 2:104 3:64 4:37 5:64 6:33.599998 7:0.50999999 8:22 #
-2.7983487781777517238454913717227e-05 1:6 2:124 3:72 4:0 5:0 6:27.6 7:0.368 8:29 #
2.7983487781777517238454913717227e-05 1:9 2:123 3:70 4:44 5:94 6:33.099998 7:0.37400001 8:40 #
2.7983487781777517238454913717227e-05 1:0 2:146 3:82 4:0 5:0 6:40.5 7:1.781 8:44 #
-2.7983487781777517238454913717227e-05 1:3 2:112 3:74 4:30 5:0 6:31.6 7:0.197 8:25 #
2.7983487781777517238454913717227e-05 1:10 2:139 3:80 4:0 5:0 6:27.1 7:1.441 8:57 #
-2.7983487781777517238454913717227e-05 1:4 2:134 3:72 4:0 5:0 6:23.799999 7:0.27700001 8:60 #
-2.7983487781777517238454913717227e-05 1:8 2:183 3:64 4:0 5:0 6:23.299999 7:0.67199999 8:32 #
2.7983487781777517238454913717227e-05 1:2 2:175 3:88 4:0 5:0 6:22.9 7:0.32600001 8:22 #
2.7983487781777517238454913717227e-05 1:0 2:137 3:68 4:14 5:148 6:24.799999 7:0.14300001 8:21 #
-2.7983487781777517238454913717227e-05 1:8 2:176 3:90 4:34 5:300 6:33.700001 7:0.46700001 8:58 #
-2.7983487781777517238454913717227e-05 1:5 2:115 3:76 4:0 5:0 6:31.200001 7:0.34299999 8:44 #
2.7983487781777517238454913717227e-05 1:6 2:125 3:68 4:30 5:120 6:30 7:0.46399999 8:32 #
-2.7983487781777517238454913717227e-05 1:1 2:113 3:64 4:35 5:0 6:33.599998 7:0.54299998 8:21 #
2.7983487781777517238454913717227e-05 1:12 2:121 3:78 4:17 5:0 6:26.5 7:0.259 8:62 #
-2.7983487781777517238454913717227e-05 1:5 2:97 3:76 4:27 5:0 6:35.599998 7:0.37799999 8:52 #
2.7983487781777517238454913717227e-05 1:1 2:119 3:44 4:47 5:63 6:35.5 7:0.28 8:25 #
2.7983487781777517238454913717227e-05 1:4 2:114 3:64 4:0 5:0 6:28.9 7:0.126 8:24 #
2.7983487781777517238454913717227e-05 1:2 2:109 3:92 4:0 5:0 6:42.700001 7:0.84500003 8:54 #
-2.7983487781777517238454913717227e-05 1:13 2:104 3:72 4:0 5:0 6:31.200001 7:0.465 8:38 #
-2.7983487781777517238454913717227e-05 1:0 2:107 3:62 4:30 5:74 6:36.599998 7:0.75700003 8:25 #
-2.7983487781777517238454913717227e-05 1:2 2:134 3:70 4:0 5:0 6:28.9 7:0.542 8:23 #
2.7983487781777517238454913717227e-05 1:2 2:105 3:58 4:40 5:94 6:34.900002 7:0.22499999 8:25 #
2.7983487781777517238454913717227e-05 1:6 2:111 3:64 4:39 5:0 6:34.200001 7:0.25999999 8:24 #
-2.7983487781777517238454913717227e-05 1:4 2:125 3:80 4:0 5:0 6:32.299999 7:0.53600001 8:27 #
2.7983487781777517238454913717227e-05 1:0 2:107 3:76 4:0 5:0 6:45.299999 7:0.68599999 8:24 #
2.7983487781777517238454913717227e-05 1:6 2:137 3:61 4:0 5:0 6:24.200001 7:0.15099999 8:55 #
-2.7983487781777517238454913717227e-05 1:12 2:151 3:70 4:40 5:271 6:41.799999 7:0.74199998 8:38 #
-2.7983487781777517238454913717227e-05 1:1 2:126 3:60 4:0 5:0 6:30.1 7:0.34900001 8:47 #
2.7983487781777517238454913717227e-05 1:1 2:138 3:82 4:0 5:0 6:40.099998 7:0.236 8:28 #
2.7983487781777517238454913717227e-05 1:10 2:122 3:78 4:31 5:0 6:27.6 7:0.51200002 8:45 #
-2.7983487781777517238454913717227e-05 1:4 2:117 3:62 4:12 5:0 6:29.700001 7:0.38 8:30 #
2.7983487781777517238454913717227e-05 1:8 2:95 3:72 4:0 5:0 6:36.799999 7:0.48500001 8:57 #
2.7983487781777517238454913717227e-05 1:1 2:146 3:56 4:0 5:0 6:29.700001 7:0.56400001 8:29 #
2.7983487781777517238454913717227e-05 1:3 2:124 3:80 4:33 5:130 6:33.200001 7:0.30500001 8:26 #
-2.7983487781777517238454913717227e-05 1:9 2:102 3:76 4:37 5:0 6:32.900002 7:0.66500002 8:46 #
-2.7983487781777517238454913717227e-05 1:1 2:128 3:98 4:41 5:58 6:32 7:1.321 8:33 #
2.7983487781777517238454913717227e-05 1:1 2:135 3:54 4:0 5:0 6:26.700001 7:0.68699998 8:62 #
-2.7983487781777517238454913717227e-05 1:8 2:120 3:0 4:0 5:0 6:30 7:0.183 8:38 #
-2.7983487781777517238454913717227e-05 1:10 2:108 3:66 4:0 5:0 6:32.400002 7:0.27200001 8:42 #
-2.7983487781777517238454913717227e-05 1:4 2:136 3:70 4:0 5:0 6:31.200001 7:1.182 8:22 #
2.7983487781777517238454913717227e-05 1:1 2:112 3:80 4:45 5:132 6:34.799999 7:0.21699999 8:24 #
2.7983487781777517238454913717227e-05 1:10 2:133 3:68 4:0 5:0 6:27 7:0.245 8:36 #
-2.7983487781777517238454913717227e-05 1:10 2:148 3:84 4:48 5:237 6:37.599998 7:1.001 8:51 #
-2.7983487781777517238454913717227e-05 1:3 2:121 3:52 4:0 5:0 6:36 7:0.127 8:25 #
2.7983487781777517238454913717227e-05 1:5 2:132 3:80 4:0 5:0 6:26.799999 7:0.186 8:69 #
2.7983487781777517238454913717227e-05 1:1 2:124 3:60 4:32 5:0 6:35.799999 7:0.514 8:21 #
-2.7983487781777517238454913717227e-05 1:0 2:123 3:72 4:0 5:0 6:36.299999 7:0.25799999 8:52 #
2.7983487781777517238454913717227e-05 1:2 2:108 3:52 4:26 5:63 6:32.5 7:0.31799999 8:22 #
2.7938897450716093651124083407922e-05 1:3 2:116 3:74 4:15 5:105 6:26.299999 7:0.107 8:24 #
-2.7983487781777517238454913717227e-05 1:5 2:158 3:84 4:41 5:210 6:39.400002 7:0.39500001 8:29 #
2.7983487781777517238454913717227e-05 1:0 2:137 3:84 4:27 5:0 6:27.299999 7:0.23100001 8:59 #
-2.7983487781777517238454913717227e-05 1:10 2:111 3:70 4:27 5:0 6:27.5 7:0.141 8:40 #
-2.7983487781777517238454913717227e-05 1:7 2:114 3:66 4:0 5:0 6:32.799999 7:0.25799999 8:42 #
2.7983487781777517238454913717227e-05 1:1 2:151 3:60 4:0 5:0 6:26.1 7:0.17900001 8:22 #
-2.7983487781777517238454913717227e-05 1:4 2:123 3:62 4:0 5:0 6:32 7:0.226 8:35 #
2.7983487781777517238454913717227e-05 1:5 2:117 3:86 4:30 5:105 6:39.099998 7:0.25099999 8:42 #
2.7983487781777517238454913717227e-05 1:10 2:122 3:68 4:0 5:0 6:31.200001 7:0.25799999 8:41 #
-2.7983487781777517238454913717227e-05 1:8 2:105 3:100 4:36 5:0 6:43.299999 7:0.23899999 8:45 #
2.7983487781777517238454913717227e-05 1:2 2:120 3:76 4:37 5:105 6:39.700001 7:0.215 8:29 #
-2.7983487781777517238454913717227e-05 1:8 2:167 3:106 4:46 5:231 6:37.599998 7:0.16500001 8:43 #
-2.7983487781777517238454913717227e-05 1:5 2:112 3:66 4:0 5:0 6:37.799999 7:0.26100001 8:41 #
2.7983487781777517238454913717227e-05 1:7 2:102 3:74 4:40 5:105 6:37.200001 7:0.204 8:45 #
-2.7983487781777517238454913717227e-05 1:0 2:131 3:66 4:40 5:0 6:34.299999 7:0.19599999 8:22 #
2.7983487781777517238454913717227e-05 1:4 2:141 3:74 4:0 5:0 6:27.6 7:0.244 8:40 #
-2.7983487781777517238454913717227e-05 1:5 2:124 3:74 4:0 5:0 6:34 7:0.22 8:38 #
-2.7983487781777517238454913717227e-05 1:7 2:109 3:80 4:31 5:0 6:35.900002 7:1.127 8:43 #
2.7983487781777517238454913717227e-05 1:3 2:150 3:76 4:0 5:0 6:21 7:0.207 8:37 #
-2.7983487781777517238454913717227e-05 1:3 2:132 3:80 4:0 5:0 6:34.400002 7:0.40200001 8:44 #
2.7983487781777517238454913717227e-05 1:4 2:118 3:70 4:0 5:0 6:44.5 7:0.90399998 8:26 #
-2.7983487781777517238454913717227e-05 1:6 2:125 3:78 4:31 5:0 6:27.6 7:0.565 8:49 #
2.7983487781777517238454913717227e-05 1:2 2:121 3:70 4:32 5:95 6:39.099998 7:0.88599998 8:23 #
2.7983487781777517238454913717227e-05 1:8 2:120 3:78 4:0 5:0 6:25 7:0.40900001 8:64 #
-2.7983487781777517238454913717227e-05 1:4 2:184 3:78 4:39 5:277 6:37 7:0.264 8:31 #
2.7983487781777517238454913717227e-05 1:0 2:141 3:84 4:26 5:0 6:32.400002 7:0.433 8:22 #
-2.7983487781777517238454913717227e-05 1:9 2:122 3:56 4:0 5:0 6:33.299999 7:1.114 8:33 #
1.5333877909795394500758192180001e-05 1:2 2:110 3:74 4:29 5:125 6:32.400002 7:0.69800001 8:27 #
-2.7983487781777517238454913717227e-05 1:10 2:101 3:86 4:37 5:0 6:45.599998 7:1.136 8:38 #
2.7983487781777517238454913717227e-05 1:5 2:121 3:72 4:23 5:112 6:26.200001 7:0.245 8:30 #
-2.7983487781777517238454913717227e-05 1:6 2:115 3:60 4:39 5:0 6:33.700001 7:0.245 8:40 #
2.7983487781777517238454913717227e-05 1:5 2:126 3:78 4:27 5:22 6:29.6 7:0.43900001 8:40 #
-2.7983487781777517238454913717227e-05 1:5 2:130 3:82 4:0 5:0 6:39.099998 7:0.95599997 8:37 #
2.7983487781777517238454913717227e-05 1:6 2:105 3:70 4:32 5:68 6:30.799999 7:0.122 8:37 #
-2.7983487781777517238454913717227e-05 1:3 2:170 3:64 4:37 5:225 6:34.5 7:0.35600001 8:30 #
-2.7983487781777517238454913717227e-05 1:8 2:133 3:72 4:0 5:0 6:32.900002 7:0.27000001 8:39 #
2.7983487781777517238454913717227e-05 1:4 2:128 3:70 4:0 5:0 6:34.299999 7:0.303 8:24 #
-2.7983487781777517238454913717227e-05 1:4 2:132 3:0 4:0 5:0 6:32.900002 7:0.30199999 8:23 #
-2.7983487781777517238454913717227e-05 1:1 2:144 3:82 4:46 5:180 6:46.099998 7:0.33500001 8:46 #
2.7983487781777517238454913717227e-05 1:4 2:122 3:68 4:0 5:0 6:35 7:0.39399999 8:29 #
-2.7983487781777517238454913717227e-05 1:4 2:142 3:86 4:0 5:0 6:44 7:0.64499998 8:22 #
2.7983487781777517238454913717227e-05 1:2 2:106 3:64 4:35 5:119 6:30.5 7:1.4 8:34 #
-2.7983487781777517238454913717227e-05 1:11 2:111 3:84 4:40 5:0 6:46.799999 7:0.92500001 8:45 #
2.7983487781777517238454913717227e-05 1:1 2:143 3:74 4:22 5:61 6:26.200001 7:0.25600001 8:21 #
2.7983487781777517238454913717227e-05 1:2 2:122 3:70 4:27 5:0 6:36.799999 7:0.34 8:27 #
-2.7983487781777517238454913717227e-05 1:9 2:130 3:70 4:0 5:0 6:34.200001 7:0.65200001 8:45 #
2.7983487781777517238454913717227e-05 1:2 2:122 3:60 4:18 5:106 6:29.799999 7:0.71700001 8:22 #
2.7983487781777517238454913717227e-05 1:3 2:128 3:78 4:0 5:0 6:21.1 7:0.26800001 8:55 #
-2.7983487781777517238454913717227e-05 1:9 2:140 3:94 4:0 5:0 6:32.700001 7:0.73400003 8:45 #
2.7983487781777517238454913717227e-05 1:5 2:123 3:74 4:40 5:77 6:34.099998 7:0.26899999 8:28 #
-2.7983487781777517238454913717227e-05 1:10 2:129 3:62 4:36 5:0 6:41.200001 7:0.44100001 8:38 #
2.7983487781777517238454913717227e-05 1:2 2:139 3:75 4:0 5:0 6:25.6 7:0.167 8:29 #
-2.7983487781777517238454913717227e-05 1:0 2:138 3:0 4:0 5:0 6:36.299999 7:0.93300003 8:25 #
-2.7983487781777517238454913717227e-05 1:4 2:144 3:82 4:32 5:0 6:38.5 7:0.55400002 8:37 #
2.7983487781777517238454913717227e-05 1:2 2:142 3:82 4:18 5:64 6:24.700001 7:0.76099998 8:21 #
-2.7983487781777517238454913717227e-05 1:9 2:171 3:110 4:24 5:240 6:45.400002 7:0.72100002 8:54 #
2.7983487781777517238454913717227e-05 1:8 2:110 3:76 4:0 5:0 6:27.799999 7:0.237 8:58 #
-2.7983487781777517238454913717227e-05 1:4 2:146 3:92 4:0 5:0 6:31.200001 7:0.53899997 8:61 #
2.7983487781777517238454913717227e-05 1:0 2:126 3:86 4:27 5:120 6:27.4 7:0.51499999 8:21 #
-2.7983487781777517238454913717227e-05 1:2 2:146 3:0 4:0 5:0 6:27.5 7:0.23999999 8:28 #
2.7983487781777517238454913717227e-05 1:1 2:130 3:70 4:13 5:105 6:25.9 7:0.472 8:22 #
-2.7983487781777517238454913717227e-05 1:13 2:152 3:90 4:33 5:29 6:26.799999 7:0.73100001 8:43 #
2.7983487781777517238454913717227e-05 1:5 2:136 3:82 4:0 5:0 6:0 7:0.63999999 8:69 #
-2.7983487781777517238454913717227e-05 1:4 2:158 3:78 4:0 5:0 6:32.900002 7:0.80299997 8:31 #
2.7983487781777517238454913717227e-05 1:0 2:132 3:78 4:0 5:0 6:32.400002 7:0.39300001 8:21 #
-2.7983487781777517238454913717227e-05 1:7 2:147 3:76 4:0 5:0 6:39.400002 7:0.257 8:43 #
2.7983487781777517238454913717227e-05 1:0 2:129 3:80 4:0 5:0 6:31.200001 7:0.70300001 8:29 #
-2.7983487781777517238454913717227e-05 1:4 2:145 3:82 4:18 5:0 6:32.5 7:0.235 8:70 #
2.7983487781777517238454913717227e-05 1:8 2:118 3:72 4:19 5:0 6:23.1 7:1.476 8:46 #
-2.7983487781777517238454913717227e-05 1:8 2:154 3:78 4:32 5:0 6:32.400002 7:0.44299999 8:45 #
-2.7983487781777517238454913717227e-05 1:7 2:159 3:66 4:0 5:0 6:30.4 7:0.38299999 8:36 #
2.7983487781777517238454913717227e-05 1:5 2:114 3:74 4:0 5:0 6:24.9 7:0.74400002 8:57 #
2.7983487781777517238454913717227e-05 1:3 2:130 3:64 4:0 5:0 6:23.1 7:0.31400001 8:22 #
-2.7983487781777517238454913717227e-05 1:4 2:146 3:78 4:0 5:0 6:38.5 7:0.51999998 8:67 #
2.7983487781777517238454913717227e-05 1:0 2:119 3:66 4:27 5:0 6:38.799999 7:0.259 8:22 #
-2.7983487781777517238454913717227e-05 1:0 2:141 3:0 4:0 5:0 6:42.400002 7:0.205 8:29 #
2.7983487781777517238454913717227e-05 1:5 2:122 3:86 4:0 5:0 6:34.700001 7:0.28999999 8:33 #
-2.7983487781777517238454913717227e-05 1:9 2:164 3:84 4:21 5:0 6:30.799999 7:0.83099997 8:32 #
2.7983487781777517238454913717227e-05 1:4 2:120 3:68 4:0 5:0 6:29.6 7:0.70899999 8:34 #
-2.7983487781777517238454913717227e-05 1:7 2:152 3:88 4:44 5:0 6:50 7:0.33700001 8:36 #
2.7983487781777517238454913717227e-05 1:1 2:124 3:74 4:36 5:0 6:27.799999 7:0.1 8:30 #
-2.7983487781777517238454913717227e-05 1:4 2:156 3:75 4:0 5:0 6:48.299999 7:0.23800001 8:32 #
-2.7983487781777517238454913717227e-05 1:3 2:174 3:58 4:22 5:194 6:32.900002 7:0.59299999 8:36 #
-2.7983487781777517238454913717227e-05 1:13 2:129 3:0 4:30 5:0 6:39.900002 7:0.56900001 8:44 #
2.7983487781777517238454913717227e-05 1:1 2:121 3:78 4:39 5:74 6:39 7:0.26100001 8:28 #
-2.7983487781777517238454913717227e-05 1:5 2:162 3:104 4:0 5:0 6:37.700001 7:0.15099999 8:52 #
2.7983487781777517238454913717227e-05 1:9 2:120 3:72 4:22 5:56 6:20.799999 7:0.73299998 8:48 #
2.7983487781777517238454913717227e-05 1:8 2:112 3:72 4:0 5:0 6:23.6 7:0.83999997 8:58 #
-2.7983487781777517238454913717227e-05 1:2 2:158 3:90 4:0 5:0 6:31.6 7:0.80500001 8:66 #
2.7983487781777517238454913717227e-05 1:0 2:124 3:56 4:13 5:105 6:21.799999 7:0.45199999 8:21 #
-2.7983487781777517238454913717227e-05 1:8 2:186 3:90 4:35 5:225 6:34.5 7:0.42300001 8:37 #
2.7983487781777517238454913717227e-05 1:0 2:123 3:88 4:37 5:0 6:35.200001 7:0.197 8:29 #
-2.7983487781777517238454913717227e-05 1:1 2:163 3:72 4:0 5:0 6:39 7:1.222 8:33 #
2.7983487781777517238454913717227e-05 1:3 2:122 3:78 4:0 5:0 6:23 7:0.25400001 8:40 #
-2.7983487781777517238454913717227e-05 1:0 2:162 3:76 4:36 5:0 6:49.599998 7:0.36399999 8:26 #
2.7983487781777517238454913717227e-05 1:2 2:120 3:54 4:0 5:0 6:26.799999 7:0.45500001 8:27 #
-2.7983487781777517238454913717227e-05 1:9 2:165 3:88 4:0 5:0 6:30.4 7:0.30199999 8:49 #
2.7983487781777517238454913717227e-05 1:0 2:125 3:68 4:0 5:0 6:24.700001 7:0.206 8:21 #
-2.7983487781777517238454913717227e-05 1:3 2:162 3:52 4:38 5:0 6:37.200001 7:0.65200001 8:24 #
-2.7983487781777517238454913717227e-05 1:9 2:164 3:78 4:0 5:0 6:32.799999 7:0.148 8:45 #
2.7983487781777517238454913717227e-05 1:3 2:111 3:56 4:39 5:0 6:30.1 7:0.55699998 8:30 #
2.7983487781777517238454913717227e-05 1:2 2:130 3:96 4:0 5:0 6:22.6 7:0.26800001 8:21 #
-2.7983487781777517238454913717227e-05 1:10 2:168 3:74 4:0 5:0 6:38 7:0.537 8:34 #
2.7983487781777517238454913717227e-05 1:6 2:114 3:0 4:0 5:0 6:0 7:0.189 8:26 #
-2.7983487781777517238454913717227e-05 1:4 2:171 3:72 4:0 5:0 6:43.599998 7:0.479 8:26 #
2.7983487781777517238454913717227e-05 1:0 2:120 3:74 4:18 5:63 6:30.5 7:0.285 8:26 #
2.7983487781777517238454913717227e-05 1:5 2:106 3:82 4:30 5:0 6:39.5 7:0.28600001 8:38 #
2.7983487781777517238454913717227e-05 1:4 2:116 3:72 4:12 5:87 6:22.1 7:0.463 8:37 #
2.7983487781777517238454913717227e-05 1:9 2:106 3:52 4:0 5:0 6:31.200001 7:0.38 8:42 #
2.7983487781777517238454913717227e-05 1:2 2:115 3:64 4:22 5:0 6:30.799999 7:0.421 8:21 #
2.7983487781777517238454913717227e-05 1:6 2:117 3:96 4:0 5:0 6:28.700001 7:0.15700001 8:30 #
2.7983487781777517238454913717227e-05 1:2 2:114 3:68 4:22 5:0 6:28.700001 7:0.092 8:25 #
2.7983487781777517238454913717227e-05 1:2 2:112 3:68 4:22 5:94 6:34.099998 7:0.315 8:26 #
-2.7983487781777517238454913717227e-05 1:0 2:167 3:0 4:0 5:0 6:32.299999 7:0.83899999 8:30 #
2.7983487781777517238454913717227e-05 1:3 2:111 3:58 4:31 5:44 6:29.5 7:0.43000001 8:22 #
-2.4716985514962915970044177171872e-05 1:0 2:180 3:66 4:39 5:0 6:42 7:1.893 8:25 #
1.4595734626126699931547570088242e-05 1:1 2:109 3:38 4:18 5:120 6:23.1 7:0.40700001 8:26 #
9.5143194623200592202616476811272e-06 1:8 2:100 3:76 4:0 5:0 6:38.700001 7:0.19 8:42 #
-2.6376010271223805647711202482242e-07 1:0 2:189 3:104 4:25 5:0 6:34.299999 7:0.435 8:41 #
